FANN_FLO_2.1
num_layers=4
learning_rate=0.700000
connection_rate=1.000000
network_type=0
learning_momentum=0.000000
training_algorithm=2
train_error_function=1
train_stop_function=0
cascade_output_change_fraction=0.010000
quickprop_decay=-0.000100
quickprop_mu=1.750000
rprop_increase_factor=1.200000
rprop_decrease_factor=0.500000
rprop_delta_min=0.000000
rprop_delta_max=50.000000
rprop_delta_zero=0.100000
cascade_output_stagnation_epochs=12
cascade_candidate_change_fraction=0.010000
cascade_candidate_stagnation_epochs=12
cascade_max_out_epochs=150
cascade_min_out_epochs=50
cascade_max_cand_epochs=150
cascade_min_cand_epochs=50
cascade_num_candidate_groups=2
bit_fail_limit=3.49999994039535522461e-01
cascade_candidate_limit=1.00000000000000000000e+03
cascade_weight_multiplier=4.00000005960464477539e-01
cascade_activation_functions_count=10
cascade_activation_functions=3 5 7 8 10 11 14 15 16 17 
cascade_activation_steepnesses_count=4
cascade_activation_steepnesses=2.50000000000000000000e-01 5.00000000000000000000e-01 7.50000000000000000000e-01 1.00000000000000000000e+00 
layer_sizes=8 5 3 2 
scale_included=0
neurons (num_inputs, activation_function, activation_steepness)=(0, 0, 0.00000000000000000000e+00) (0, 0, 0.00000000000000000000e+00) (0, 0, 0.00000000000000000000e+00) (0, 0, 0.00000000000000000000e+00) (0, 0, 0.00000000000000000000e+00) (0, 0, 0.00000000000000000000e+00) (0, 0, 0.00000000000000000000e+00) (0, 0, 0.00000000000000000000e+00) (8, 4, 5.00000000000000000000e-01) (8, 4, 5.00000000000000000000e-01) (8, 4, 5.00000000000000000000e-01) (8, 4, 5.00000000000000000000e-01) (0, 0, 0.00000000000000000000e+00) (5, 4, 5.00000000000000000000e-01) (5, 4, 5.00000000000000000000e-01) (0, 0, 0.00000000000000000000e+00) (3, 4, 5.00000000000000000000e-01) (0, 0, 0.00000000000000000000e+00) 
connections (connected_to_neuron, weight)=(0, 5.15067577362060546875e-03) (1, 7.96605423092842102051e-02) (2, -6.50450438261032104492e-02) (3, -3.81563603878021240234e-03) (4, -2.63327881693840026855e-02) (5, -7.97171518206596374512e-02) (6, -6.79543539881706237793e-02) (7, 9.97420400381088256836e-03) (0, 2.58809551596641540527e-02) (1, -6.12533651292324066162e-02) (2, 2.01331600546836853027e-02) (3, -3.11669260263442993164e-02) (4, -6.15530498325824737549e-02) (5, 3.73046770691871643066e-02) (6, -8.98933261632919311523e-02) (7, -1.78004950284957885742e-02) (0, -5.92621974647045135498e-02) (1, -4.65402975678443908691e-02) (2, -7.92642384767532348633e-02) (3, -3.83685231208801269531e-02) (4, -9.26098600029945373535e-02) (5, -2.77652591466903686523e-03) (6, 8.26649144291877746582e-02) (7, -8.14589634537696838379e-02) (0, 7.63074234127998352051e-02) (1, 9.53296497464179992676e-02) (2, -4.95454445481300354004e-02) (3, 7.69690200686454772949e-02) (4, 4.82027307152748107910e-02) (5, -1.63592398166656494141e-04) (6, 4.58963438868522644043e-02) (7, -4.66466024518013000488e-02) (8, -2.05030590295791625977e-02) (9, 8.08512941002845764160e-02) (10, 4.95377704501152038574e-02) (11, 5.31641468405723571777e-02) (12, -9.88658666610717773438e-02) (8, 8.15834179520606994629e-02) (9, -3.68616431951522827148e-02) (10, 2.70150974392890930176e-02) (11, -7.96699523925781250000e-02) (12, 8.32715258002281188965e-02) (13, 9.58481654524803161621e-02) (14, -4.12230007350444793701e-02) (15, 2.05761939287185668945e-02) 
