FANN_FLO_2.1
num_layers=3
learning_rate=0.700000
connection_rate=1.000000
network_type=0
learning_momentum=0.000000
training_algorithm=2
train_error_function=1
train_stop_function=0
cascade_output_change_fraction=0.010000
quickprop_decay=-0.000100
quickprop_mu=1.750000
rprop_increase_factor=1.200000
rprop_decrease_factor=0.500000
rprop_delta_min=0.000000
rprop_delta_max=50.000000
rprop_delta_zero=0.100000
cascade_output_stagnation_epochs=12
cascade_candidate_change_fraction=0.010000
cascade_candidate_stagnation_epochs=12
cascade_max_out_epochs=150
cascade_min_out_epochs=50
cascade_max_cand_epochs=150
cascade_min_cand_epochs=50
cascade_num_candidate_groups=2
bit_fail_limit=3.49999994039535522461e-01
cascade_candidate_limit=1.00000000000000000000e+03
cascade_weight_multiplier=4.00000005960464477539e-01
cascade_activation_functions_count=10
cascade_activation_functions=3 5 7 8 10 11 14 15 16 17 
cascade_activation_steepnesses_count=4
cascade_activation_steepnesses=2.50000000000000000000e-01 5.00000000000000000000e-01 7.50000000000000000000e-01 1.00000000000000000000e+00 
layer_sizes=8 6 3 
scale_included=0
neurons (num_inputs, activation_function, activation_steepness)=(0, 0, 0.00000000000000000000e+00) (0, 0, 0.00000000000000000000e+00) (0, 0, 0.00000000000000000000e+00) (0, 0, 0.00000000000000000000e+00) (0, 0, 0.00000000000000000000e+00) (0, 0, 0.00000000000000000000e+00) (0, 0, 0.00000000000000000000e+00) (0, 0, 0.00000000000000000000e+00) (8, 4, 5.00000000000000000000e-01) (8, 4, 5.00000000000000000000e-01) (8, 4, 5.00000000000000000000e-01) (8, 4, 5.00000000000000000000e-01) (8, 4, 5.00000000000000000000e-01) (0, 0, 0.00000000000000000000e+00) (6, 4, 5.00000000000000000000e-01) (6, 4, 5.00000000000000000000e-01) (0, 0, 0.00000000000000000000e+00) 
connections (connected_to_neuron, weight)=(0, -2.02315613627433776855e-01) (1, 5.32795965671539306641e-01) (2, -2.95030856132507324219e+00) (3, -3.29513406753540039062e+00) (4, 2.20659027099609375000e+01) (5, 7.74090886116027832031e-02) (6, -1.74490280151367187500e+01) (7, -1.53998291492462158203e+00) (0, -4.11865741014480590820e-01) (1, 8.50798873901367187500e+01) (2, 2.59998798370361328125e-01) (3, 8.33736360073089599609e-01) (4, 5.00773525238037109375e+00) (5, 2.85971570014953613281e+00) (6, -1.69691181182861328125e+00) (7, -1.94701492786407470703e+00) (0, -1.31177440285682678223e-01) (1, 5.72858035564422607422e-01) (2, -7.43981674313545227051e-02) (3, 4.87846031188964843750e+01) (4, 8.97621959447860717773e-02) (5, -8.15915882587432861328e-01) (6, -4.45103549957275390625e+00) (7, 7.32487961649894714355e-02) (0, -1.97274059057235717773e-01) (1, 6.35015010833740234375e-01) (2, 2.12813578546047210693e-02) (3, -3.32573699951171875000e+00) (4, -5.82917094230651855469e-01) (5, -1.87199807167053222656e+00) (6, 5.86898207664489746094e-01) (7, -7.71817386150360107422e-01) (0, 5.28852558135986328125e+00) (1, 3.39275002479553222656e-01) (2, -1.67411279678344726562e+00) (3, 9.27117407321929931641e-01) (4, -2.19218984246253967285e-01) (5, 5.67683124542236328125e+00) (6, 3.09210538864135742188e+00) (7, 7.82554268836975097656e-01) (8, -3.75464230775833129883e-01) (9, -2.79404729604721069336e-01) (10, -4.70845252275466918945e-01) (11, 4.09920185804367065430e-01) (12, 1.46300733089447021484e+00) (13, -2.28147101402282714844e+00) (8, 9.47020339965820312500e+00) (9, -8.82237076759338378906e-01) (10, 1.43349289894104003906e-01) (11, -2.82860815525054931641e-01) (12, -6.63857889175415039062e+00) (13, -4.50860023498535156250e-01) 
