FANN_FLO_2.1
num_layers=3
learning_rate=0.700000
connection_rate=1.000000
network_type=0
learning_momentum=0.000000
training_algorithm=2
train_error_function=1
train_stop_function=0
cascade_output_change_fraction=0.010000
quickprop_decay=-0.000100
quickprop_mu=1.750000
rprop_increase_factor=1.200000
rprop_decrease_factor=0.500000
rprop_delta_min=0.000000
rprop_delta_max=50.000000
rprop_delta_zero=0.100000
cascade_output_stagnation_epochs=12
cascade_candidate_change_fraction=0.010000
cascade_candidate_stagnation_epochs=12
cascade_max_out_epochs=150
cascade_min_out_epochs=50
cascade_max_cand_epochs=150
cascade_min_cand_epochs=50
cascade_num_candidate_groups=2
bit_fail_limit=3.49999994039535522461e-01
cascade_candidate_limit=1.00000000000000000000e+03
cascade_weight_multiplier=4.00000005960464477539e-01
cascade_activation_functions_count=10
cascade_activation_functions=3 5 7 8 10 11 14 15 16 17 
cascade_activation_steepnesses_count=4
cascade_activation_steepnesses=2.50000000000000000000e-01 5.00000000000000000000e-01 7.50000000000000000000e-01 1.00000000000000000000e+00 
layer_sizes=8 6 3 
scale_included=0
neurons (num_inputs, activation_function, activation_steepness)=(0, 0, 0.00000000000000000000e+00) (0, 0, 0.00000000000000000000e+00) (0, 0, 0.00000000000000000000e+00) (0, 0, 0.00000000000000000000e+00) (0, 0, 0.00000000000000000000e+00) (0, 0, 0.00000000000000000000e+00) (0, 0, 0.00000000000000000000e+00) (0, 0, 0.00000000000000000000e+00) (8, 4, 5.00000000000000000000e-01) (8, 4, 5.00000000000000000000e-01) (8, 4, 5.00000000000000000000e-01) (8, 4, 5.00000000000000000000e-01) (8, 4, 5.00000000000000000000e-01) (0, 0, 0.00000000000000000000e+00) (6, 4, 5.00000000000000000000e-01) (6, 4, 5.00000000000000000000e-01) (0, 0, 0.00000000000000000000e+00) 
connections (connected_to_neuron, weight)=(0, -1.21308791637420654297e+00) (1, -7.01950430870056152344e-01) (2, -2.61272907257080078125e+00) (3, 3.40304398536682128906e+00) (4, 6.25666475296020507812e+00) (5, 1.12233757972717285156e-01) (6, -4.15943145751953125000e+00) (7, 7.31253027915954589844e-02) (0, 7.13781535625457763672e-01) (1, 5.34341573715209960938e+00) (2, -2.35320949554443359375e+00) (3, 1.15880012512207031250e+00) (4, 5.02716398239135742188e+00) (5, -6.79455041885375976562e+00) (6, -2.40206980705261230469e+00) (7, 3.40489339828491210938e+00) (0, 2.36604046821594238281e+00) (1, -1.33087813854217529297e+00) (2, 1.01198589801788330078e+00) (3, -2.08465433120727539062e+00) (4, 2.40603208541870117188e+00) (5, -2.82367849349975585938e+00) (6, -2.52084040641784667969e+00) (7, -3.07494735717773437500e+00) (0, -3.63233733177185058594e+00) (1, 3.05257582664489746094e+00) (2, -3.42589712142944335938e+00) (3, 3.47966837882995605469e+00) (4, 4.04278135299682617188e+00) (5, -1.79028201103210449219e+00) (6, -3.62292718887329101562e+00) (7, 3.77999806404113769531e+00) (0, 2.75972795486450195312e+00) (1, 1.96862721443176269531e+00) (2, -2.36025422811508178711e-01) (3, 3.58028602600097656250e+00) (4, 7.51205921173095703125e+00) (5, 2.95364212989807128906e+00) (6, 4.59089899063110351562e+00) (7, -6.03335857391357421875e+00) (8, 2.76856780052185058594e-01) (9, -4.78645443916320800781e-01) (10, 2.85873126983642578125e+00) (11, 6.90029680728912353516e-01) (12, 1.39077746868133544922e+00) (13, -1.17463529109954833984e+00) (8, 2.52503848075866699219e+00) (9, 2.93934011459350585938e+00) (10, 1.19086325168609619141e+00) (11, -1.66348174214363098145e-01) (12, -2.93415832519531250000e+00) (13, 1.20395863056182861328e+00) 
