FANN_FLO_2.1
num_layers=3
learning_rate=0.700000
connection_rate=1.000000
network_type=0
learning_momentum=0.000000
training_algorithm=2
train_error_function=1
train_stop_function=0
cascade_output_change_fraction=0.010000
quickprop_decay=-0.000100
quickprop_mu=1.750000
rprop_increase_factor=1.200000
rprop_decrease_factor=0.500000
rprop_delta_min=0.000000
rprop_delta_max=50.000000
rprop_delta_zero=0.100000
cascade_output_stagnation_epochs=12
cascade_candidate_change_fraction=0.010000
cascade_candidate_stagnation_epochs=12
cascade_max_out_epochs=150
cascade_min_out_epochs=50
cascade_max_cand_epochs=150
cascade_min_cand_epochs=50
cascade_num_candidate_groups=2
bit_fail_limit=3.49999994039535522461e-01
cascade_candidate_limit=1.00000000000000000000e+03
cascade_weight_multiplier=4.00000005960464477539e-01
cascade_activation_functions_count=10
cascade_activation_functions=3 5 7 8 10 11 14 15 16 17 
cascade_activation_steepnesses_count=4
cascade_activation_steepnesses=2.50000000000000000000e-01 5.00000000000000000000e-01 7.50000000000000000000e-01 1.00000000000000000000e+00 
layer_sizes=8 4 3 
scale_included=0
neurons (num_inputs, activation_function, activation_steepness)=(0, 0, 0.00000000000000000000e+00) (0, 0, 0.00000000000000000000e+00) (0, 0, 0.00000000000000000000e+00) (0, 0, 0.00000000000000000000e+00) (0, 0, 0.00000000000000000000e+00) (0, 0, 0.00000000000000000000e+00) (0, 0, 0.00000000000000000000e+00) (0, 0, 0.00000000000000000000e+00) (8, 4, 5.00000000000000000000e-01) (8, 4, 5.00000000000000000000e-01) (8, 4, 5.00000000000000000000e-01) (0, 0, 0.00000000000000000000e+00) (4, 4, 5.00000000000000000000e-01) (4, 4, 5.00000000000000000000e-01) (0, 0, 0.00000000000000000000e+00) 
connections (connected_to_neuron, weight)=(0, -3.19527089595794677734e-03) (1, 3.46569046378135681152e-02) (2, 3.53621169924736022949e-02) (3, -9.94913950562477111816e-02) (4, 6.99404552578926086426e-02) (5, 3.79374399781227111816e-02) (6, 9.15932878851890563965e-02) (7, 3.41252759099006652832e-02) (0, 1.25647559762001037598e-02) (1, 1.14515423774719238281e-02) (2, 8.65365564823150634766e-03) (3, 7.91380330920219421387e-02) (4, -6.37945681810379028320e-02) (5, 2.65634134411811828613e-02) (6, -7.84469768404960632324e-02) (7, 2.07252874970436096191e-02) (0, 1.16180926561355590820e-02) (1, -1.99785307049751281738e-02) (2, -7.18351379036903381348e-02) (3, -5.72809167206287384033e-02) (4, -2.45016962289810180664e-02) (5, -3.50095927715301513672e-02) (6, 5.67992702126502990723e-02) (7, 1.21609121561050415039e-03) (8, 8.58788713812828063965e-02) (9, -9.23704206943511962891e-02) (10, -2.98199504613876342773e-02) (11, 7.29496777057647705078e-03) (8, -9.12718847393989562988e-02) (9, -2.53422185778617858887e-02) (10, -4.97714467346668243408e-02) (11, 5.53284585475921630859e-03) 
