FANN_FLO_2.1
num_layers=3
learning_rate=0.700000
connection_rate=1.000000
network_type=0
learning_momentum=0.000000
training_algorithm=2
train_error_function=1
train_stop_function=0
cascade_output_change_fraction=0.010000
quickprop_decay=-0.000100
quickprop_mu=1.750000
rprop_increase_factor=1.200000
rprop_decrease_factor=0.500000
rprop_delta_min=0.000000
rprop_delta_max=50.000000
rprop_delta_zero=0.100000
cascade_output_stagnation_epochs=12
cascade_candidate_change_fraction=0.010000
cascade_candidate_stagnation_epochs=12
cascade_max_out_epochs=150
cascade_min_out_epochs=50
cascade_max_cand_epochs=150
cascade_min_cand_epochs=50
cascade_num_candidate_groups=2
bit_fail_limit=3.49999994039535522461e-01
cascade_candidate_limit=1.00000000000000000000e+03
cascade_weight_multiplier=4.00000005960464477539e-01
cascade_activation_functions_count=10
cascade_activation_functions=3 5 7 8 10 11 14 15 16 17 
cascade_activation_steepnesses_count=4
cascade_activation_steepnesses=2.50000000000000000000e-01 5.00000000000000000000e-01 7.50000000000000000000e-01 1.00000000000000000000e+00 
layer_sizes=8 6 3 
scale_included=0
neurons (num_inputs, activation_function, activation_steepness)=(0, 0, 0.00000000000000000000e+00) (0, 0, 0.00000000000000000000e+00) (0, 0, 0.00000000000000000000e+00) (0, 0, 0.00000000000000000000e+00) (0, 0, 0.00000000000000000000e+00) (0, 0, 0.00000000000000000000e+00) (0, 0, 0.00000000000000000000e+00) (0, 0, 0.00000000000000000000e+00) (8, 4, 5.00000000000000000000e-01) (8, 4, 5.00000000000000000000e-01) (8, 4, 5.00000000000000000000e-01) (8, 4, 5.00000000000000000000e-01) (8, 4, 5.00000000000000000000e-01) (0, 0, 0.00000000000000000000e+00) (6, 4, 5.00000000000000000000e-01) (6, 4, 5.00000000000000000000e-01) (0, 0, 0.00000000000000000000e+00) 
connections (connected_to_neuron, weight)=(0, -3.38281011581420898438e+00) (1, -6.54189634323120117188e+00) (2, 3.09552371501922607422e-01) (3, -8.95851254463195800781e-01) (4, -4.62238407135009765625e+00) (5, 9.01140332221984863281e-01) (6, 8.12589168548583984375e-01) (7, 3.54060697555541992188e+00) (0, -4.99564981460571289062e+00) (1, 6.09186410903930664062e-01) (2, 1.52409482002258300781e+00) (3, -5.76226413249969482422e-01) (4, -4.80647373199462890625e+00) (5, -3.05965304374694824219e+00) (6, -6.69635295867919921875e+00) (7, 2.62675905227661132812e+00) (0, -3.72405827045440673828e-01) (1, -1.23056435585021972656e+00) (2, -5.81081295013427734375e+00) (3, -6.67618274688720703125e-01) (4, -2.07426714897155761719e+00) (5, -3.19447207450866699219e+00) (6, -1.29977238178253173828e+00) (7, 3.95713210105895996094e-01) (0, -7.44841277599334716797e-01) (1, 3.89675116539001464844e+00) (2, -8.76707911491394042969e-01) (3, 6.97714805603027343750e+00) (4, -1.37100684642791748047e+00) (5, 3.04199504852294921875e+00) (6, -4.68883371353149414062e+00) (7, -1.58656620979309082031e+00) (0, 4.86777019500732421875e+00) (1, -4.44165372848510742188e+00) (2, -8.18030357360839843750e-01) (3, 2.44641590118408203125e+00) (4, -5.76108646392822265625e+00) (5, 5.96555614471435546875e+00) (6, -1.91637873649597167969e-03) (7, 1.55657768249511718750e+00) (8, 7.45692491531372070312e+00) (9, 6.90877914428710937500e-01) (10, -5.71777045726776123047e-01) (11, -2.27309894561767578125e+00) (12, 1.98617994785308837891e+00) (13, 5.11931753158569335938e+00) (8, -1.83647584915161132812e+00) (9, 4.08756017684936523438e+00) (10, -6.08310556411743164062e+00) (11, 4.23315143585205078125e+00) (12, -5.98382091522216796875e+00) (13, 1.97621273994445800781e+00) 
