FANN_FLO_2.1
num_layers=3
learning_rate=0.700000
connection_rate=1.000000
network_type=0
learning_momentum=0.000000
training_algorithm=2
train_error_function=1
train_stop_function=0
cascade_output_change_fraction=0.010000
quickprop_decay=-0.000100
quickprop_mu=1.750000
rprop_increase_factor=1.200000
rprop_decrease_factor=0.500000
rprop_delta_min=0.000000
rprop_delta_max=50.000000
rprop_delta_zero=0.100000
cascade_output_stagnation_epochs=12
cascade_candidate_change_fraction=0.010000
cascade_candidate_stagnation_epochs=12
cascade_max_out_epochs=150
cascade_min_out_epochs=50
cascade_max_cand_epochs=150
cascade_min_cand_epochs=50
cascade_num_candidate_groups=2
bit_fail_limit=3.49999994039535522461e-01
cascade_candidate_limit=1.00000000000000000000e+03
cascade_weight_multiplier=4.00000005960464477539e-01
cascade_activation_functions_count=10
cascade_activation_functions=3 5 7 8 10 11 14 15 16 17 
cascade_activation_steepnesses_count=4
cascade_activation_steepnesses=2.50000000000000000000e-01 5.00000000000000000000e-01 7.50000000000000000000e-01 1.00000000000000000000e+00 
layer_sizes=8 6 3 
scale_included=0
neurons (num_inputs, activation_function, activation_steepness)=(0, 0, 0.00000000000000000000e+00) (0, 0, 0.00000000000000000000e+00) (0, 0, 0.00000000000000000000e+00) (0, 0, 0.00000000000000000000e+00) (0, 0, 0.00000000000000000000e+00) (0, 0, 0.00000000000000000000e+00) (0, 0, 0.00000000000000000000e+00) (0, 0, 0.00000000000000000000e+00) (8, 4, 5.00000000000000000000e-01) (8, 4, 5.00000000000000000000e-01) (8, 4, 5.00000000000000000000e-01) (8, 4, 5.00000000000000000000e-01) (8, 4, 5.00000000000000000000e-01) (0, 0, 0.00000000000000000000e+00) (6, 4, 5.00000000000000000000e-01) (6, 4, 5.00000000000000000000e-01) (0, 0, 0.00000000000000000000e+00) 
connections (connected_to_neuron, weight)=(0, -3.81444662809371948242e-01) (1, 4.20432806015014648438e-01) (2, -1.08838367462158203125e+00) (3, 6.96374714374542236328e-01) (4, 3.54679286479949951172e-01) (5, 4.67334628105163574219e-01) (6, -7.46989846229553222656e-01) (7, 6.11945390701293945312e-01) (0, -1.68838524818420410156e+00) (1, -5.22137582302093505859e-01) (2, 6.12997859716415405273e-02) (3, -9.26767051219940185547e-01) (4, 4.21210408210754394531e-01) (5, -7.69591331481933593750e-01) (6, 2.62527704238891601562e-01) (7, 6.47413015365600585938e-01) (0, 7.80154228210449218750e-01) (1, 5.12719988822937011719e-01) (2, -7.82967388629913330078e-01) (3, 2.52488434314727783203e-01) (4, -1.09595012664794921875e+00) (5, 1.19302123785018920898e-01) (6, 2.90379554033279418945e-01) (7, -5.81593453884124755859e-01) (0, -1.11266267299652099609e+00) (1, 6.20729863643646240234e-01) (2, 7.57478117942810058594e-01) (3, 7.51183867454528808594e-01) (4, 9.37895774841308593750e-01) (5, 9.46450352668762207031e-01) (6, 8.55212211608886718750e-02) (7, -6.70046508312225341797e-01) (0, 2.34081578254699707031e+00) (1, 4.02467280626296997070e-01) (2, -1.93068265914916992188e+00) (3, -4.85167384147644042969e-01) (4, -2.97919213771820068359e-01) (5, -8.06562244892120361328e-01) (6, -3.13462257385253906250e-01) (7, -8.26262533664703369141e-02) (8, -1.14717721939086914062e-01) (9, 8.12978386878967285156e-01) (10, 5.25633454322814941406e-01) (11, 7.23287880420684814453e-01) (12, 1.34006404876708984375e+00) (13, 1.03581750392913818359e+00) (8, 5.86839735507965087891e-01) (9, -1.30777633190155029297e+00) (10, -2.38482499122619628906e+00) (11, 7.63659238815307617188e-01) (12, 6.02633357048034667969e-01) (13, -1.00542336702346801758e-01) 
