FANN_FLO_2.1
num_layers=3
learning_rate=0.700000
connection_rate=1.000000
network_type=0
learning_momentum=0.000000
training_algorithm=2
train_error_function=1
train_stop_function=0
cascade_output_change_fraction=0.010000
quickprop_decay=-0.000100
quickprop_mu=1.750000
rprop_increase_factor=1.200000
rprop_decrease_factor=0.500000
rprop_delta_min=0.000000
rprop_delta_max=50.000000
rprop_delta_zero=0.100000
cascade_output_stagnation_epochs=12
cascade_candidate_change_fraction=0.010000
cascade_candidate_stagnation_epochs=12
cascade_max_out_epochs=150
cascade_min_out_epochs=50
cascade_max_cand_epochs=150
cascade_min_cand_epochs=50
cascade_num_candidate_groups=2
bit_fail_limit=3.49999994039535522461e-01
cascade_candidate_limit=1.00000000000000000000e+03
cascade_weight_multiplier=4.00000005960464477539e-01
cascade_activation_functions_count=10
cascade_activation_functions=3 5 7 8 10 11 14 15 16 17 
cascade_activation_steepnesses_count=4
cascade_activation_steepnesses=2.50000000000000000000e-01 5.00000000000000000000e-01 7.50000000000000000000e-01 1.00000000000000000000e+00 
layer_sizes=8 6 3 
scale_included=0
neurons (num_inputs, activation_function, activation_steepness)=(0, 0, 0.00000000000000000000e+00) (0, 0, 0.00000000000000000000e+00) (0, 0, 0.00000000000000000000e+00) (0, 0, 0.00000000000000000000e+00) (0, 0, 0.00000000000000000000e+00) (0, 0, 0.00000000000000000000e+00) (0, 0, 0.00000000000000000000e+00) (0, 0, 0.00000000000000000000e+00) (8, 4, 5.00000000000000000000e-01) (8, 4, 5.00000000000000000000e-01) (8, 4, 5.00000000000000000000e-01) (8, 4, 5.00000000000000000000e-01) (8, 4, 5.00000000000000000000e-01) (0, 0, 0.00000000000000000000e+00) (6, 4, 5.00000000000000000000e-01) (6, 4, 5.00000000000000000000e-01) (0, 0, 0.00000000000000000000e+00) 
connections (connected_to_neuron, weight)=(0, -2.33013853430747985840e-02) (1, -1.58645495772361755371e-01) (2, -2.06141066551208496094e+00) (3, -2.98373913764953613281e+00) (4, 2.29017982482910156250e+01) (5, -9.73950326442718505859e-02) (6, -1.78447647094726562500e+01) (7, -8.01881551742553710938e-01) (0, 7.81062915921211242676e-02) (1, 8.52409057617187500000e+01) (2, -1.59593835473060607910e-01) (3, 7.92840540409088134766e-01) (4, 4.88929653167724609375e+00) (5, 2.86130046844482421875e+00) (6, -1.12641465663909912109e+00) (7, -1.69485008716583251953e+00) (0, -1.01039719581604003906e+00) (1, 1.32547706365585327148e-01) (2, -8.60043540596961975098e-02) (3, 4.86184654235839843750e+01) (4, -2.52818018198013305664e-01) (5, -9.60056483745574951172e-01) (6, -5.29770565032958984375e+00) (7, -5.02192974090576171875e-01) (0, 3.86075168848037719727e-01) (1, 5.21279513835906982422e-01) (2, 2.05389440059661865234e-01) (3, -3.20914316177368164062e+00) (4, -5.39383411407470703125e-01) (5, -1.94384145736694335938e+00) (6, 5.24449884891510009766e-01) (7, -5.55521845817565917969e-01) (0, 5.24658489227294921875e+00) (1, -7.87685215473175048828e-02) (2, -9.31714236736297607422e-01) (3, 1.47912353277206420898e-02) (4, -3.89322549104690551758e-01) (5, 5.36106061935424804688e+00) (6, 3.18016052246093750000e+00) (7, 4.91716042160987854004e-02) (8, 9.38162878155708312988e-02) (9, 1.96480751037597656250e-01) (10, -4.24661725759506225586e-01) (11, 3.35357815027236938477e-01) (12, 9.79959666728973388672e-01) (13, -2.17807745933532714844e+00) (8, 9.32147216796875000000e+00) (9, -5.41134536266326904297e-01) (10, -2.74808835238218307495e-02) (11, 2.29562520980834960938e-01) (12, -6.34128570556640625000e+00) (13, -2.68241107463836669922e-01) 
