FANN_FLO_2.1
num_layers=3
learning_rate=0.700000
connection_rate=1.000000
network_type=0
learning_momentum=0.000000
training_algorithm=2
train_error_function=1
train_stop_function=0
cascade_output_change_fraction=0.010000
quickprop_decay=-0.000100
quickprop_mu=1.750000
rprop_increase_factor=1.200000
rprop_decrease_factor=0.500000
rprop_delta_min=0.000000
rprop_delta_max=50.000000
rprop_delta_zero=0.100000
cascade_output_stagnation_epochs=12
cascade_candidate_change_fraction=0.010000
cascade_candidate_stagnation_epochs=12
cascade_max_out_epochs=150
cascade_min_out_epochs=50
cascade_max_cand_epochs=150
cascade_min_cand_epochs=50
cascade_num_candidate_groups=2
bit_fail_limit=3.49999994039535522461e-01
cascade_candidate_limit=1.00000000000000000000e+03
cascade_weight_multiplier=4.00000005960464477539e-01
cascade_activation_functions_count=10
cascade_activation_functions=3 5 7 8 10 11 14 15 16 17 
cascade_activation_steepnesses_count=4
cascade_activation_steepnesses=2.50000000000000000000e-01 5.00000000000000000000e-01 7.50000000000000000000e-01 1.00000000000000000000e+00 
layer_sizes=8 6 3 
scale_included=0
neurons (num_inputs, activation_function, activation_steepness)=(0, 0, 0.00000000000000000000e+00) (0, 0, 0.00000000000000000000e+00) (0, 0, 0.00000000000000000000e+00) (0, 0, 0.00000000000000000000e+00) (0, 0, 0.00000000000000000000e+00) (0, 0, 0.00000000000000000000e+00) (0, 0, 0.00000000000000000000e+00) (0, 0, 0.00000000000000000000e+00) (8, 4, 5.00000000000000000000e-01) (8, 4, 5.00000000000000000000e-01) (8, 4, 5.00000000000000000000e-01) (8, 4, 5.00000000000000000000e-01) (8, 4, 5.00000000000000000000e-01) (0, 0, 0.00000000000000000000e+00) (6, 4, 5.00000000000000000000e-01) (6, 4, 5.00000000000000000000e-01) (0, 0, 0.00000000000000000000e+00) 
connections (connected_to_neuron, weight)=(0, 2.82610207796096801758e-02) (1, -5.44608682394027709961e-02) (2, -2.20807814598083496094e+00) (3, -3.04340934753417968750e+00) (4, 2.30486526489257812500e+01) (5, -1.58804237842559814453e-01) (6, -1.80452346801757812500e+01) (7, -8.24749231338500976562e-01) (0, 1.72309726476669311523e-01) (1, 8.52569351196289062500e+01) (2, 1.70080680400133132935e-02) (3, 7.98922121524810791016e-01) (4, 4.99241065979003906250e+00) (5, 2.97599172592163085938e+00) (6, -1.10686230659484863281e+00) (7, -1.85813784599304199219e+00) (0, -1.06160032749176025391e+00) (1, 1.78833305835723876953e-01) (2, 2.08828169852495193481e-02) (3, 4.87005004882812500000e+01) (4, -3.09615612030029296875e-01) (5, -7.63042449951171875000e-01) (6, -5.53782463073730468750e+00) (7, -1.78670406341552734375e-01) (0, 3.52902054786682128906e-01) (1, 3.32314074039459228516e-01) (2, 4.37174081802368164062e-01) (3, -3.03731322288513183594e+00) (4, -6.84419751167297363281e-01) (5, -2.11558365821838378906e+00) (6, 4.35710251331329345703e-01) (7, -5.01102864742279052734e-01) (0, 5.30622673034667968750e+00) (1, -1.14241629838943481445e-01) (2, -6.26141905784606933594e-01) (3, 1.82621449232101440430e-01) (4, -4.02916222810745239258e-01) (5, 5.25101375579833984375e+00) (6, 3.18119907379150390625e+00) (7, -6.09839446842670440674e-02) (8, 1.05546526610851287842e-01) (9, 1.25657975673675537109e-01) (10, -2.40326449275016784668e-01) (11, 4.03406679630279541016e-01) (12, 9.46481466293334960938e-01) (13, -1.80741965770721435547e+00) (8, 9.33669662475585937500e+00) (9, -6.50152862071990966797e-01) (10, 2.68627889454364776611e-02) (11, 3.80843989551067352295e-02) (12, -6.34949493408203125000e+00) (13, -3.90139549970626831055e-01) 
