FANN_FLO_2.1
num_layers=3
learning_rate=0.700000
connection_rate=1.000000
network_type=0
learning_momentum=0.000000
training_algorithm=2
train_error_function=1
train_stop_function=0
cascade_output_change_fraction=0.010000
quickprop_decay=-0.000100
quickprop_mu=1.750000
rprop_increase_factor=1.200000
rprop_decrease_factor=0.500000
rprop_delta_min=0.000000
rprop_delta_max=50.000000
rprop_delta_zero=0.100000
cascade_output_stagnation_epochs=12
cascade_candidate_change_fraction=0.010000
cascade_candidate_stagnation_epochs=12
cascade_max_out_epochs=150
cascade_min_out_epochs=50
cascade_max_cand_epochs=150
cascade_min_cand_epochs=50
cascade_num_candidate_groups=2
bit_fail_limit=3.49999994039535522461e-01
cascade_candidate_limit=1.00000000000000000000e+03
cascade_weight_multiplier=4.00000005960464477539e-01
cascade_activation_functions_count=10
cascade_activation_functions=3 5 7 8 10 11 14 15 16 17 
cascade_activation_steepnesses_count=4
cascade_activation_steepnesses=2.50000000000000000000e-01 5.00000000000000000000e-01 7.50000000000000000000e-01 1.00000000000000000000e+00 
layer_sizes=8 6 3 
scale_included=0
neurons (num_inputs, activation_function, activation_steepness)=(0, 0, 0.00000000000000000000e+00) (0, 0, 0.00000000000000000000e+00) (0, 0, 0.00000000000000000000e+00) (0, 0, 0.00000000000000000000e+00) (0, 0, 0.00000000000000000000e+00) (0, 0, 0.00000000000000000000e+00) (0, 0, 0.00000000000000000000e+00) (0, 0, 0.00000000000000000000e+00) (8, 4, 5.00000000000000000000e-01) (8, 4, 5.00000000000000000000e-01) (8, 4, 5.00000000000000000000e-01) (8, 4, 5.00000000000000000000e-01) (8, 4, 5.00000000000000000000e-01) (0, 0, 0.00000000000000000000e+00) (6, 4, 5.00000000000000000000e-01) (6, 4, 5.00000000000000000000e-01) (0, 0, 0.00000000000000000000e+00) 
connections (connected_to_neuron, weight)=(0, -3.02775788307189941406e+00) (1, 8.35942149162292480469e-01) (2, -2.89095544815063476562e+00) (3, 4.07843875885009765625e+00) (4, 6.82741117477416992188e+00) (5, 8.51625442504882812500e-01) (6, -5.76942014694213867188e+00) (7, 7.25927948951721191406e-03) (0, 1.32990646362304687500e+00) (1, 4.25017499923706054688e+00) (2, -1.45772361755371093750e+00) (3, 2.62592220306396484375e+00) (4, 5.14363050460815429688e+00) (5, -6.48584127426147460938e+00) (6, -1.37934541702270507812e+00) (7, 3.60321474075317382812e+00) (0, 1.76471030712127685547e+00) (1, -2.22928071022033691406e+00) (2, -1.11627578735351562500e-01) (3, -3.01673555374145507812e+00) (4, 2.24415516853332519531e+00) (5, -2.54222440719604492188e+00) (6, -2.13540816307067871094e+00) (7, -3.42857933044433593750e+00) (0, -3.50784158706665039062e+00) (1, 2.05159544944763183594e+00) (2, -2.75591731071472167969e+00) (3, 3.29671835899353027344e+00) (4, 4.38532352447509765625e+00) (5, -2.54723596572875976562e+00) (6, -4.03918981552124023438e+00) (7, 3.83606290817260742188e+00) (0, 2.74702501296997070312e+00) (1, 2.21476030349731445312e+00) (2, -1.38036417961120605469e+00) (3, 2.94714069366455078125e+00) (4, 7.33547353744506835938e+00) (5, 3.33231496810913085938e+00) (6, 3.65524768829345703125e+00) (7, -5.82585525512695312500e+00) (8, -1.55253365635871887207e-01) (9, -2.65812456607818603516e-01) (10, 1.53169202804565429688e+00) (11, 1.51849329471588134766e+00) (12, 1.39854907989501953125e+00) (13, -9.84966576099395751953e-01) (8, 1.36998236179351806641e+00) (9, 3.23827743530273437500e+00) (10, 2.09479594230651855469e+00) (11, 5.12554764747619628906e-01) (12, -2.09795427322387695312e+00) (13, 9.94374394416809082031e-01) 
