FANN_FLO_2.1
num_layers=3
learning_rate=0.700000
connection_rate=1.000000
network_type=0
learning_momentum=0.000000
training_algorithm=2
train_error_function=1
train_stop_function=0
cascade_output_change_fraction=0.010000
quickprop_decay=-0.000100
quickprop_mu=1.750000
rprop_increase_factor=1.200000
rprop_decrease_factor=0.500000
rprop_delta_min=0.000000
rprop_delta_max=50.000000
rprop_delta_zero=0.100000
cascade_output_stagnation_epochs=12
cascade_candidate_change_fraction=0.010000
cascade_candidate_stagnation_epochs=12
cascade_max_out_epochs=150
cascade_min_out_epochs=50
cascade_max_cand_epochs=150
cascade_min_cand_epochs=50
cascade_num_candidate_groups=2
bit_fail_limit=3.49999994039535522461e-01
cascade_candidate_limit=1.00000000000000000000e+03
cascade_weight_multiplier=4.00000005960464477539e-01
cascade_activation_functions_count=10
cascade_activation_functions=3 5 7 8 10 11 14 15 16 17 
cascade_activation_steepnesses_count=4
cascade_activation_steepnesses=2.50000000000000000000e-01 5.00000000000000000000e-01 7.50000000000000000000e-01 1.00000000000000000000e+00 
layer_sizes=8 6 3 
scale_included=0
neurons (num_inputs, activation_function, activation_steepness)=(0, 0, 0.00000000000000000000e+00) (0, 0, 0.00000000000000000000e+00) (0, 0, 0.00000000000000000000e+00) (0, 0, 0.00000000000000000000e+00) (0, 0, 0.00000000000000000000e+00) (0, 0, 0.00000000000000000000e+00) (0, 0, 0.00000000000000000000e+00) (0, 0, 0.00000000000000000000e+00) (8, 4, 5.00000000000000000000e-01) (8, 4, 5.00000000000000000000e-01) (8, 4, 5.00000000000000000000e-01) (8, 4, 5.00000000000000000000e-01) (8, 4, 5.00000000000000000000e-01) (0, 0, 0.00000000000000000000e+00) (6, 4, 5.00000000000000000000e-01) (6, 4, 5.00000000000000000000e-01) (0, 0, 0.00000000000000000000e+00) 
connections (connected_to_neuron, weight)=(0, -1.70287551879882812500e+01) (1, -1.97950267791748046875e+00) (2, 5.79108715057373046875e+00) (3, -4.84488070011138916016e-01) (4, -8.38757514953613281250e+00) (5, -4.25122022628784179688e+00) (6, -6.39290452003479003906e-01) (7, 3.01773047447204589844e+00) (0, -3.11741733551025390625e+00) (1, 9.25561308860778808594e-01) (2, 6.03920221328735351562e-01) (3, -3.74603486061096191406e+00) (4, 1.14078298211097717285e-01) (5, -1.22351799011230468750e+01) (6, -4.04097843170166015625e+00) (7, 8.06640243530273437500e+00) (0, 4.75302171707153320312e+00) (1, -2.27555036544799804688e+00) (2, 2.87166333198547363281e+00) (3, -2.63940858840942382812e+00) (4, -5.81212997436523437500e+00) (5, 6.04332923889160156250e+00) (6, 4.19807767868041992188e+00) (7, -7.53684473037719726562e+00) (0, -2.47169423103332519531e+00) (1, -4.96201610565185546875e+00) (2, 1.18388092517852783203e+00) (3, 7.32996320724487304688e+00) (4, 5.21011447906494140625e+00) (5, 1.45554375648498535156e+00) (6, -1.20044183731079101562e+01) (7, 4.20365273952484130859e-01) (0, 8.43353092670440673828e-01) (1, 3.27757549285888671875e+00) (2, 7.91709280014038085938e+00) (3, 9.87328243255615234375e+00) (4, -1.56103696823120117188e+01) (5, 1.28198299407958984375e+01) (6, 3.20633864402770996094e+00) (7, -2.44874072074890136719e+00) (8, 1.12994222640991210938e+01) (9, -2.69266223907470703125e+00) (10, -7.48943090438842773438e-01) (11, 1.51412263512611389160e-01) (12, -4.62352848052978515625e+00) (13, 5.62816238403320312500e+00) (8, 8.51824474334716796875e+00) (9, -3.35829067230224609375e+00) (10, -3.56991457939147949219e+00) (11, 9.52882862091064453125e+00) (12, -3.94524765014648437500e+00) (13, 4.73941802978515625000e+00) 
