FANN_FLO_2.1
num_layers=3
learning_rate=0.700000
connection_rate=1.000000
network_type=0
learning_momentum=0.000000
training_algorithm=2
train_error_function=1
train_stop_function=0
cascade_output_change_fraction=0.010000
quickprop_decay=-0.000100
quickprop_mu=1.750000
rprop_increase_factor=1.200000
rprop_decrease_factor=0.500000
rprop_delta_min=0.000000
rprop_delta_max=50.000000
rprop_delta_zero=0.100000
cascade_output_stagnation_epochs=12
cascade_candidate_change_fraction=0.010000
cascade_candidate_stagnation_epochs=12
cascade_max_out_epochs=150
cascade_min_out_epochs=50
cascade_max_cand_epochs=150
cascade_min_cand_epochs=50
cascade_num_candidate_groups=2
bit_fail_limit=3.49999994039535522461e-01
cascade_candidate_limit=1.00000000000000000000e+03
cascade_weight_multiplier=4.00000005960464477539e-01
cascade_activation_functions_count=10
cascade_activation_functions=3 5 7 8 10 11 14 15 16 17 
cascade_activation_steepnesses_count=4
cascade_activation_steepnesses=2.50000000000000000000e-01 5.00000000000000000000e-01 7.50000000000000000000e-01 1.00000000000000000000e+00 
layer_sizes=8 6 3 
scale_included=0
neurons (num_inputs, activation_function, activation_steepness)=(0, 0, 0.00000000000000000000e+00) (0, 0, 0.00000000000000000000e+00) (0, 0, 0.00000000000000000000e+00) (0, 0, 0.00000000000000000000e+00) (0, 0, 0.00000000000000000000e+00) (0, 0, 0.00000000000000000000e+00) (0, 0, 0.00000000000000000000e+00) (0, 0, 0.00000000000000000000e+00) (8, 4, 5.00000000000000000000e-01) (8, 4, 5.00000000000000000000e-01) (8, 4, 5.00000000000000000000e-01) (8, 4, 5.00000000000000000000e-01) (8, 4, 5.00000000000000000000e-01) (0, 0, 0.00000000000000000000e+00) (6, 4, 5.00000000000000000000e-01) (6, 4, 5.00000000000000000000e-01) (0, 0, 0.00000000000000000000e+00) 
connections (connected_to_neuron, weight)=(0, -1.25130395889282226562e+01) (1, -3.11414933204650878906e+00) (2, 1.94008064270019531250e+00) (3, 5.05644941329956054688e+00) (4, -5.79116439819335937500e+00) (5, -7.85692870616912841797e-01) (6, -1.15948045253753662109e+00) (7, 2.84607815742492675781e+00) (0, -3.03051567077636718750e+00) (1, -6.77963161468505859375e+00) (2, 2.30867362022399902344e+00) (3, -5.43861341476440429688e+00) (4, -4.16225290298461914062e+00) (5, -1.05844488143920898438e+01) (6, -6.25537681579589843750e+00) (7, 6.70451831817626953125e+00) (0, -9.28699851036071777344e-01) (1, -3.46318531036376953125e+00) (2, -4.32762241363525390625e+00) (3, -1.88997578620910644531e+00) (4, -3.13760280609130859375e+00) (5, 4.73231983184814453125e+00) (6, 4.67742443084716796875e+00) (7, -3.15141057968139648438e+00) (0, -4.84468984603881835938e+00) (1, -6.34936094284057617188e+00) (2, -2.37176942825317382812e+00) (3, 9.02063179016113281250e+00) (4, 1.38158190250396728516e+00) (5, 2.62007975578308105469e+00) (6, -1.38983478546142578125e+01) (7, 4.52537107467651367188e+00) (0, 9.19866847991943359375e+00) (1, 2.83646869659423828125e+00) (2, 4.53613281250000000000e+00) (3, 1.19934196472167968750e+01) (4, -1.04876937866210937500e+01) (5, 1.19749021530151367188e+01) (6, -2.44496631622314453125e+00) (7, -1.58836042881011962891e+00) (8, 1.28695974349975585938e+01) (9, -9.30336236953735351562e-01) (10, -7.88599014282226562500e-01) (11, 7.11985230445861816406e-02) (12, -3.20444965362548828125e+00) (13, 3.81321024894714355469e+00) (8, 4.51122808456420898438e+00) (9, -5.64744424819946289062e+00) (10, -5.55297851562500000000e+00) (11, 6.77188634872436523438e+00) (12, -5.19470167160034179688e+00) (13, 6.85554170608520507812e+00) 
