FANN_FLO_2.1
num_layers=3
learning_rate=0.700000
connection_rate=1.000000
network_type=0
learning_momentum=0.000000
training_algorithm=2
train_error_function=1
train_stop_function=0
cascade_output_change_fraction=0.010000
quickprop_decay=-0.000100
quickprop_mu=1.750000
rprop_increase_factor=1.200000
rprop_decrease_factor=0.500000
rprop_delta_min=0.000000
rprop_delta_max=50.000000
rprop_delta_zero=0.100000
cascade_output_stagnation_epochs=12
cascade_candidate_change_fraction=0.010000
cascade_candidate_stagnation_epochs=12
cascade_max_out_epochs=150
cascade_min_out_epochs=50
cascade_max_cand_epochs=150
cascade_min_cand_epochs=50
cascade_num_candidate_groups=2
bit_fail_limit=3.49999994039535522461e-01
cascade_candidate_limit=1.00000000000000000000e+03
cascade_weight_multiplier=4.00000005960464477539e-01
cascade_activation_functions_count=10
cascade_activation_functions=3 5 7 8 10 11 14 15 16 17 
cascade_activation_steepnesses_count=4
cascade_activation_steepnesses=2.50000000000000000000e-01 5.00000000000000000000e-01 7.50000000000000000000e-01 1.00000000000000000000e+00 
layer_sizes=8 6 3 
scale_included=0
neurons (num_inputs, activation_function, activation_steepness)=(0, 0, 0.00000000000000000000e+00) (0, 0, 0.00000000000000000000e+00) (0, 0, 0.00000000000000000000e+00) (0, 0, 0.00000000000000000000e+00) (0, 0, 0.00000000000000000000e+00) (0, 0, 0.00000000000000000000e+00) (0, 0, 0.00000000000000000000e+00) (0, 0, 0.00000000000000000000e+00) (8, 4, 5.00000000000000000000e-01) (8, 4, 5.00000000000000000000e-01) (8, 4, 5.00000000000000000000e-01) (8, 4, 5.00000000000000000000e-01) (8, 4, 5.00000000000000000000e-01) (0, 0, 0.00000000000000000000e+00) (6, 4, 5.00000000000000000000e-01) (6, 4, 5.00000000000000000000e-01) (0, 0, 0.00000000000000000000e+00) 
connections (connected_to_neuron, weight)=(0, -8.51188659667968750000e+00) (1, -3.19555449485778808594e+00) (2, 4.99994158744812011719e-01) (3, 2.70588517189025878906e+00) (4, -5.73807621002197265625e+00) (5, -2.69670546054840087891e-01) (6, -2.61441516876220703125e+00) (7, 4.58758211135864257812e+00) (0, -1.10185098648071289062e+01) (1, -9.01862859725952148438e-01) (2, 5.53328418731689453125e+00) (3, -1.12284028530120849609e+00) (4, -1.34020662307739257812e+00) (5, -5.21975374221801757812e+00) (6, -7.45121955871582031250e+00) (7, 5.41968679428100585938e+00) (0, 2.32530206441879272461e-01) (1, -2.69588732719421386719e+00) (2, -3.63939762115478515625e+00) (3, -5.57626676559448242188e+00) (4, -3.32141661643981933594e+00) (5, -1.02084839344024658203e+00) (6, -1.22765541076660156250e+00) (7, -2.70637178421020507812e+00) (0, -3.61934781074523925781e+00) (1, -4.80710697174072265625e+00) (2, -5.91831386089324951172e-01) (3, 6.92024850845336914062e+00) (4, 3.52667331695556640625e+00) (5, 1.58572447299957275391e+00) (6, -6.35206508636474609375e+00) (7, 2.65085959434509277344e+00) (0, 7.24022388458251953125e+00) (1, 1.78091895580291748047e+00) (2, -7.08324491977691650391e-01) (3, 1.04137258529663085938e+01) (4, -5.12047004699707031250e+00) (5, 1.41348600387573242188e+01) (6, -1.49540591239929199219e+00) (7, 8.19154262542724609375e-01) (8, 1.27567901611328125000e+01) (9, -1.96555364131927490234e+00) (10, -1.12518978118896484375e+00) (11, -2.81788659095764160156e+00) (12, -1.56929564476013183594e+00) (13, 2.53063225746154785156e+00) (8, 9.36349213123321533203e-01) (9, -3.38212656974792480469e+00) (10, -7.18358755111694335938e+00) (11, 2.13850426673889160156e+00) (12, -5.08497858047485351562e+00) (13, 4.12886333465576171875e+00) 
