FANN_FLO_2.1
num_layers=3
learning_rate=0.700000
connection_rate=1.000000
network_type=0
learning_momentum=0.000000
training_algorithm=2
train_error_function=1
train_stop_function=0
cascade_output_change_fraction=0.010000
quickprop_decay=-0.000100
quickprop_mu=1.750000
rprop_increase_factor=1.200000
rprop_decrease_factor=0.500000
rprop_delta_min=0.000000
rprop_delta_max=50.000000
rprop_delta_zero=0.100000
cascade_output_stagnation_epochs=12
cascade_candidate_change_fraction=0.010000
cascade_candidate_stagnation_epochs=12
cascade_max_out_epochs=150
cascade_min_out_epochs=50
cascade_max_cand_epochs=150
cascade_min_cand_epochs=50
cascade_num_candidate_groups=2
bit_fail_limit=3.49999994039535522461e-01
cascade_candidate_limit=1.00000000000000000000e+03
cascade_weight_multiplier=4.00000005960464477539e-01
cascade_activation_functions_count=10
cascade_activation_functions=3 5 7 8 10 11 14 15 16 17 
cascade_activation_steepnesses_count=4
cascade_activation_steepnesses=2.50000000000000000000e-01 5.00000000000000000000e-01 7.50000000000000000000e-01 1.00000000000000000000e+00 
layer_sizes=8 6 3 
scale_included=0
neurons (num_inputs, activation_function, activation_steepness)=(0, 0, 0.00000000000000000000e+00) (0, 0, 0.00000000000000000000e+00) (0, 0, 0.00000000000000000000e+00) (0, 0, 0.00000000000000000000e+00) (0, 0, 0.00000000000000000000e+00) (0, 0, 0.00000000000000000000e+00) (0, 0, 0.00000000000000000000e+00) (0, 0, 0.00000000000000000000e+00) (8, 4, 5.00000000000000000000e-01) (8, 4, 5.00000000000000000000e-01) (8, 4, 5.00000000000000000000e-01) (8, 4, 5.00000000000000000000e-01) (8, 4, 5.00000000000000000000e-01) (0, 0, 0.00000000000000000000e+00) (6, 4, 5.00000000000000000000e-01) (6, 4, 5.00000000000000000000e-01) (0, 0, 0.00000000000000000000e+00) 
connections (connected_to_neuron, weight)=(0, -3.70675373077392578125e+00) (1, -6.43918132781982421875e+00) (2, 4.36009556055068969727e-01) (3, -5.63636243343353271484e-01) (4, -4.23085975646972656250e+00) (5, 7.44036674499511718750e-01) (6, -5.98539859056472778320e-02) (7, 3.77073812484741210938e+00) (0, -5.20236110687255859375e+00) (1, 7.11387157440185546875e-01) (2, 2.15604090690612792969e+00) (3, -1.35493838787078857422e+00) (4, -4.75411701202392578125e+00) (5, -3.95729398727416992188e+00) (6, -6.56547164916992187500e+00) (7, 3.57531952857971191406e+00) (0, -6.12549841403961181641e-01) (1, -1.02023005485534667969e+00) (2, -6.19444990158081054688e+00) (3, -7.97363877296447753906e-01) (4, -6.59314393997192382812e-01) (5, -2.80155229568481445312e+00) (6, -6.47723197937011718750e-01) (7, -2.28115022182464599609e-02) (0, -1.84412181377410888672e+00) (1, 4.28407335281372070312e+00) (2, -1.09831523895263671875e+00) (3, 7.66682195663452148438e+00) (4, -9.07031416893005371094e-01) (5, 3.19114208221435546875e+00) (6, -4.43389701843261718750e+00) (7, -1.44524204730987548828e+00) (0, 5.01827144622802734375e+00) (1, -4.22636175155639648438e+00) (2, -1.48583769798278808594e+00) (3, 2.68629646301269531250e+00) (4, -5.67616653442382812500e+00) (5, 5.80663013458251953125e+00) (6, -6.73646688461303710938e-01) (7, 2.06449723243713378906e+00) (8, 7.88609313964843750000e+00) (9, 1.07973861694335937500e+00) (10, -8.66318821907043457031e-01) (11, -2.28703904151916503906e+00) (12, 2.84671831130981445312e+00) (13, 5.44268846511840820312e+00) (8, -2.72260046005249023438e+00) (9, 3.83892250061035156250e+00) (10, -6.82022666931152343750e+00) (11, 3.85844087600708007812e+00) (12, -5.95897865295410156250e+00) (13, 2.18240356445312500000e+00) 
