FANN_FLO_2.1
num_layers=3
learning_rate=0.700000
connection_rate=1.000000
network_type=0
learning_momentum=0.000000
training_algorithm=2
train_error_function=1
train_stop_function=0
cascade_output_change_fraction=0.010000
quickprop_decay=-0.000100
quickprop_mu=1.750000
rprop_increase_factor=1.200000
rprop_decrease_factor=0.500000
rprop_delta_min=0.000000
rprop_delta_max=50.000000
rprop_delta_zero=0.100000
cascade_output_stagnation_epochs=12
cascade_candidate_change_fraction=0.010000
cascade_candidate_stagnation_epochs=12
cascade_max_out_epochs=150
cascade_min_out_epochs=50
cascade_max_cand_epochs=150
cascade_min_cand_epochs=50
cascade_num_candidate_groups=2
bit_fail_limit=3.49999994039535522461e-01
cascade_candidate_limit=1.00000000000000000000e+03
cascade_weight_multiplier=4.00000005960464477539e-01
cascade_activation_functions_count=10
cascade_activation_functions=3 5 7 8 10 11 14 15 16 17 
cascade_activation_steepnesses_count=4
cascade_activation_steepnesses=2.50000000000000000000e-01 5.00000000000000000000e-01 7.50000000000000000000e-01 1.00000000000000000000e+00 
layer_sizes=8 6 3 
scale_included=0
neurons (num_inputs, activation_function, activation_steepness)=(0, 0, 0.00000000000000000000e+00) (0, 0, 0.00000000000000000000e+00) (0, 0, 0.00000000000000000000e+00) (0, 0, 0.00000000000000000000e+00) (0, 0, 0.00000000000000000000e+00) (0, 0, 0.00000000000000000000e+00) (0, 0, 0.00000000000000000000e+00) (0, 0, 0.00000000000000000000e+00) (8, 4, 5.00000000000000000000e-01) (8, 4, 5.00000000000000000000e-01) (8, 4, 5.00000000000000000000e-01) (8, 4, 5.00000000000000000000e-01) (8, 4, 5.00000000000000000000e-01) (0, 0, 0.00000000000000000000e+00) (6, 4, 5.00000000000000000000e-01) (6, 4, 5.00000000000000000000e-01) (0, 0, 0.00000000000000000000e+00) 
connections (connected_to_neuron, weight)=(0, 2.27354526519775390625e+00) (1, 6.97540378570556640625e+00) (2, 1.82351016998291015625e+00) (3, 6.60276889801025390625e+00) (4, -1.01732835769653320312e+01) (5, -1.94822341203689575195e-01) (6, 1.54549121856689453125e+00) (7, 7.98810541629791259766e-01) (0, -1.76597499847412109375e+00) (1, -8.14802289009094238281e-01) (2, 1.25542545318603515625e+00) (3, -6.21096611022949218750e+00) (4, 1.94862782955169677734e+00) (5, -1.97547614574432373047e+00) (6, -8.90531361103057861328e-01) (7, -6.29692411422729492188e+00) (0, -4.31356334686279296875e+00) (1, -2.16971024870872497559e-01) (2, 4.90578174591064453125e+00) (3, 3.18001818656921386719e+00) (4, -1.50835788249969482422e+00) (5, -7.07089710235595703125e+00) (6, 1.51565045118331909180e-01) (7, 2.27850675582885742188e+00) (0, 1.25196433067321777344e+00) (1, 9.42138004302978515625e+00) (2, -6.66315495967864990234e-01) (3, -4.15207242965698242188e+00) (4, -6.64019680023193359375e+00) (5, -5.47697401046752929688e+00) (6, 1.02118515968322753906e+00) (7, 7.93844366073608398438e+00) (0, 3.00979375839233398438e+00) (1, -1.89012527465820312500e+00) (2, -3.62572002410888671875e+00) (3, 2.75712466239929199219e+00) (4, 3.76704144477844238281e+00) (5, 2.01270103454589843750e+00) (6, -7.92446374893188476562e+00) (7, 2.47728705406188964844e+00) (8, 3.80292803049087524414e-01) (9, 5.49818038940429687500e-01) (10, -1.11750459671020507812e+00) (11, -3.76889419555664062500e+00) (12, -5.04536151885986328125e-01) (13, -1.04681181907653808594e+00) (8, -3.14837741851806640625e+00) (9, 4.99553382396697998047e-01) (10, 3.66113424301147460938e+00) (11, -2.78423070907592773438e-01) (12, 4.31818532943725585938e+00) (13, -2.59603190422058105469e+00) 
