FANN_FLO_2.1
num_layers=3
learning_rate=0.700000
connection_rate=1.000000
network_type=0
learning_momentum=0.000000
training_algorithm=2
train_error_function=1
train_stop_function=0
cascade_output_change_fraction=0.010000
quickprop_decay=-0.000100
quickprop_mu=1.750000
rprop_increase_factor=1.200000
rprop_decrease_factor=0.500000
rprop_delta_min=0.000000
rprop_delta_max=50.000000
rprop_delta_zero=0.100000
cascade_output_stagnation_epochs=12
cascade_candidate_change_fraction=0.010000
cascade_candidate_stagnation_epochs=12
cascade_max_out_epochs=150
cascade_min_out_epochs=50
cascade_max_cand_epochs=150
cascade_min_cand_epochs=50
cascade_num_candidate_groups=2
bit_fail_limit=3.49999994039535522461e-01
cascade_candidate_limit=1.00000000000000000000e+03
cascade_weight_multiplier=4.00000005960464477539e-01
cascade_activation_functions_count=10
cascade_activation_functions=3 5 7 8 10 11 14 15 16 17 
cascade_activation_steepnesses_count=4
cascade_activation_steepnesses=2.50000000000000000000e-01 5.00000000000000000000e-01 7.50000000000000000000e-01 1.00000000000000000000e+00 
layer_sizes=8 6 3 
scale_included=0
neurons (num_inputs, activation_function, activation_steepness)=(0, 0, 0.00000000000000000000e+00) (0, 0, 0.00000000000000000000e+00) (0, 0, 0.00000000000000000000e+00) (0, 0, 0.00000000000000000000e+00) (0, 0, 0.00000000000000000000e+00) (0, 0, 0.00000000000000000000e+00) (0, 0, 0.00000000000000000000e+00) (0, 0, 0.00000000000000000000e+00) (8, 4, 5.00000000000000000000e-01) (8, 4, 5.00000000000000000000e-01) (8, 4, 5.00000000000000000000e-01) (8, 4, 5.00000000000000000000e-01) (8, 4, 5.00000000000000000000e-01) (0, 0, 0.00000000000000000000e+00) (6, 4, 5.00000000000000000000e-01) (6, 4, 5.00000000000000000000e-01) (0, 0, 0.00000000000000000000e+00) 
connections (connected_to_neuron, weight)=(0, -1.06442344188690185547e+00) (1, -3.14629189670085906982e-02) (2, -3.38604688644409179688e+00) (3, -4.24779319763183593750e+00) (4, 2.13700695037841796875e+01) (5, 2.67064630985260009766e-01) (6, -1.58926210403442382812e+01) (7, -2.28693938255310058594e+00) (0, 6.19776546955108642578e-01) (1, 8.46056442260742187500e+01) (2, 5.03863096237182617188e-02) (3, 1.33007347583770751953e+00) (4, 4.53470945358276367188e+00) (5, 3.04246091842651367188e+00) (6, -3.21407735347747802734e-01) (7, -2.36415362358093261719e+00) (0, -1.95414149761199951172e+00) (1, 1.08594819903373718262e-01) (2, 5.22633969783782958984e-01) (3, 4.90571136474609375000e+01) (4, 5.09889051318168640137e-02) (5, 3.51084798574447631836e-01) (6, -4.03453207015991210938e+00) (7, -9.05075609683990478516e-01) (0, -5.58318793773651123047e-01) (1, 5.82165718078613281250e-01) (2, 6.64257049560546875000e-01) (3, -4.44191026687622070312e+00) (4, -3.62831056118011474609e-01) (5, -2.49909496307373046875e+00) (6, -1.11200146377086639404e-01) (7, -4.80943918228149414062e-01) (0, 5.53944969177246093750e+00) (1, 5.06805419921875000000e-01) (2, -1.74086856842041015625e+00) (3, 1.66762757301330566406e+00) (4, -1.03883624076843261719e+00) (5, 6.05807113647460937500e+00) (6, 2.94513559341430664062e+00) (7, 7.59703934192657470703e-01) (8, 2.92987406253814697266e-01) (9, -1.40940278768539428711e-01) (10, -1.14871060848236083984e+00) (11, 2.58123755455017089844e-01) (12, 1.36778616905212402344e+00) (13, -1.54153645038604736328e+00) (8, 9.94355010986328125000e+00) (9, 1.69215947389602661133e-01) (10, -6.85362339019775390625e-01) (11, 3.48978415131568908691e-02) (12, -6.23227977752685546875e+00) (13, -6.32390737533569335938e-01) 
